{"classifications":["Negative","Positive"],"type":"sparse perceptron","weights":[0.5370804116506004,4.011610317918982,-0.6990593946953555,-0.10543104825194534,-5.570760838767331,-4.325451886457797,0.49738793509974955,2.095369370544997,1.847160472219659,6.088731331041766,-4.028122473784733,-2.106228277671034,-1.3717443182040592,-1.9875244642521268,0.49859367381787234,3.161567392293763,-5.49626017184524,-4.381048061850473,3.0132248366333108,-0.014488107454720968,2.7716080911191323,-0.4541383042319201,5.090623683416047,3.068667707593466,0.19386093846427987,1.4111609784168992,2.879236344642861,5.094058732485549,3.9296843556783143,-0.843407118687962,-1.1158688251044673,10.124501297115623,0.1497781562690617,-1.7697720176881526,1.1975170269370135,3.597839564012283,-7.259266843828269,-1.413838794448408,0.6384376463925275,-5.663149532737881,-0.14137773286406902,-3.1590116980530607,-3.7813767815055486,-1.1958945705237487,7.496753675998663,0.1468296753313511,2.6528658559099436,-0.21831753224767217,0.8111192094658847,0.8406197500048824,7.15342701470957,-9.13964303764332,-3.743252735097898,4.3489508797343275,-0.9478983604373151,-0.6962698207332602,-5.421472593669825,-10.248574058623307,-0.005690050338732417,3.7885755076068546,-14.091443439182266,2.3069876719446736,-0.4860468769881241,-9.308838591963173,-4.948388266540819,-5.20520821890081,0.9673805939532515,0.3956407293259114,-6.5244571644267095,4.619157464582158,14.577670189543081,6.985658993446858,7.3775789008779995,-2.070505888962027,1.517316806024776,4.695043725664895,-1.7899759060722455,-1.685329846454223,6.245378742930154,-9.394603824629652,0.5726683853334542,-1.6178326563214067,4.5383400564669545,-3.985528392264311,2.176129839489819,-2.8975480424185336,-1.1685821486294512,-0.4566401644493953,0.7299410368484571,-4.117470839492756,-10.253096039574555,-2.6776400276389545,-8.58526530496163,-2.0376568711788714,3.5726922169199193,-1.9541143945582333,-3.5525768023966307,-3.003101969385495,8.540622827050962,1.0125134534346465,3.1657733505902956,-5.654540056386891,0.8755918017938489,2.043798578183809,3.688991846945403,-3.6476696063047958,-4.757489993402608,2.304728454461195,0.9749626707095491,2.078684890833141,2.947549288839588,-5.278231439217995,-1.859420219894519,-1.1299751892808723,-0.1393099008655431,-3.1765338394313147,-2.8938163981678815,-4.308967382201953,4.0550181528142675,4.306884504446885,-2.313079470134945,3.036790932269828,1.6878002722550527,0.4750865791500987,-0.0944240199016299,3.89972721773527,1.4571198211806162,2.4493327972593586,4.500851588030748,3.0106088419379913,-11.178984390527845,-1.4773294497967866,-0.48004117640971705,-2.2596874165822776,2.9771390542392853,2.7213398708962133,3.631932702204803,-4.030260475899386,-1.7149643037172977,4.072967917588122,0.3548863079594799,1.459830947607764,-4.054339532108587,-6.074725387967408,1.8040100893609177,-1.8379469146228515,-0.49529070253233004,-2.7039642113379116,0.5543892822696738,1.677664253548054,-0.31091812242024336,-0.8579193024951627,1.8006324150556148,3.9650385394511805,0.4791670020733172,3.793087373082135,-6.669703751598994,-0.23706252181797896,-4.540316489174953,3.076591991864083,-3.8426661408476774,-3.7959068511827736,-1.0328941474609508,-4.1602542422056805,-1.4535060434190905,2.655375019961152,2.104483798003111,-1.0987905102756972,4.657431540241871,-5.8074526324581175,6.972654541660166,-1.1020190321581682,1.1395052994679518,-5.400763837229183,-3.8301634959909108,-0.8092761024649997,-5.02246671510238,-0.04797147101327412,-1.5107198626479528,4.046104798659199,0.8313007105607463,0.7515930033534767,-0.10725669794351218,-0.31019421688055615,6.6937015309096,-3.359914572136954,-2.129125570774831,-0.33889955907025004,-0.5884914929406315,-0.035779717951028134,-2.182719254921333,-1.1583225608745262,2.5845415146044286,-2.382972006429899,2.476459375546719,-1.2013274668179426,-2.1407666543162236,2.424086693001809,4.494159660037566,-2.7194902619834114,-2.033468754661645,1.2675322516520513,0.2166547943154875,0.5189360712028264,4.955767955834119,3.7806950324059208,2.33050678691809,-0.36221341497458964,3.0841130742821323,-1.6305576538930846,-0.1529009050094916,0.39690416891876296,-3.926295066326055,0.8254870696872254,2.951068931942291,5.679517094913003,3.3643244585894467,-5.179704017832841,1.3144221435109098,-0.4540203077511544,-4.967901231253077,-2.3134104003455116,-0.06622959371151674,-8.482520982995371,-0.13477068180678314,-2.0625287662957312,-1.673470376362721,5.032081274940016,-2.9552015994523075,1.9502457169886704,3.4795889920041025,-2.1913455314750325,-1.3362890679382193,-1.016654793234833,-0.8020876288844285,0.7162351003503777,-3.2474951620824655,0.8642872203578311,3.5138818002877197,-0.34276612280397306,-9.247086346274218,-3.192551293773057,3.6333374380674366,0.22887614139887197,0.3844434675609301,-1.9667777235731099,0.08994012727533372,-2.0591500182974696,7.622030297981537,-0.2537927566579224,2.985595944878631,7.97372006894259,-2.3296675830903344,-3.0196529601313116,2.6923414012154256,6.829795171038069,9.779084961719526,-0.8725057179173173,-0.07037356728051931,4.016574734292382,1.9826697756501679,3.7965002888225152,15.102483232211302,-0.17313818149621252,3.1222882631961117,5.041485936605423,-5.199836922259872,0.9153152306972157,5.015772353433506,6.799389272128364,1.802604132879691,1.4263739919510985,1.4533118086093615,2.7625891652058683,0.8749346107597634,4.7744974830656215,-3.216084451926059,3.036040529608156,-4.404934650993854,4.154314855888585,15.00565133175987,4.081722129316496,-5.259874791676157,0.3195285579860341,0.3361522592486368,5.879998059762609,0.6281551322842387,4.535850148601339,-1.8472436583229428,1.7360961085300801,7.904987509661551,-1.4736283125423622,0.6018590043149863,-2.8846636562593777,-11.338487031309084,1.0188665970218937,2.1465284300741168,-2.0008062263677586,0.01692316947926512,-0.2452405694450842,2.4511628533151297,1.6927366471525473,2.6285587223217686,4.81795362580549,5.413942991874356,5.319766191242752,2.5767390576444784,1.8120056091230037,2.998158664849588,2.6726664635560446,8.360788605830162,-3.43355495784614,2.903244532905436,-0.9666923211913343,5.618160753289808,1.5350315897771354,-1.4088419055165655,1.3443227894692618,-3.3448335058613536,0.17725101928979842,0.22286095407478992,2.210520364067515,-5.0111428557841355,0.415981258094433,-1.2341007499826582,-1.4834032820218164,1.90384768685644,6.802644077059616,3.9346935477931644,0.41885507463380256,2.3078994171175045,3.333380210289345,4.7042588739705415,-5.283259439139132,1.6326794452168165,1.1663342008030244,4.167656635496166,-1.35968622241697,5.132419761142911,-2.367460027666546,-2.835767202968644,-2.013397723893211,0.28471471663557696,-0.14360674985230495,-3.1373648219498955,3.011537197205489,1.3328390135150943,11.235782070861124,-1.0888996884991933,2.676319301997347,5.8699425971087456,2.2351545799361476,-2.1878665082100204,1.5925569329617786,-4.487985197958014,-0.3891999248039957,2.953525916712841,-4.9024547247033,3.2133172393354856,2.3993222142236355,1.3976788774214342,-4.156395037670686,1.6699831405299368,5.695398580351008,-1.5926621648502348,3.0720455742413804,-0.8961170337089864,4.943475217173687,-1.3203823290899526,1.9500853085780998,-7.964793690635939,3.085893226619497,-4.619808050727199,1.9591528907572782,5.942062441820553,1.3762569402225018,5.0027920669850205,-1.8236105949828079,13.04597359738041,7.866394583529215,-2.3101096571158406,-1.0076017986535366,-4.461724492379862,4.294545463357628,1.588633738150468,-2.568507574685267,0.32774674390600883,2.991340052895279,3.2826049382075317,-1.2582090393304477,-0.14123373581796864,-3.8371342676447724,2.6522124212815257,7.230629768796624,-3.7469859421344247,1.3515109397831069,-0.2824786502309518,1.2245292836631327,1.4771561617538809,-0.20498005041192038,0.15437419038861316,3.5370057817898815,-0.16353156824666143,-1.7887489461661221,-1.321393383091196,0.7174751275643755,-0.4885438382470426,4.381753826214348,4.350245897056134,7.122644170738492,-0.6359276290455866,4.709651353263966,3.4712139963764224,1.6651009379394874,3.097756619709361,-4.78247435493393,-0.5689570011833692,-5.323153332681134,2.173196268717078,-4.13287126664515,-3.1644329753737055,-1.7669702728746308,-2.949058428642201,0.02091981484938819,4.058928935407749,-0.30355528359862993,-2.146966479847235,-2.4483554037744395,0.488059421379439,3.0210526474253645,3.8557666016940453,0.9584602023577643,-0.19295589935917676,-0.5523004053541372,1.27528120697944,7.30333916937393,2.68561770114646,7.630972299782487,-3.585214106521772,0.6482701451389113,-6.136780658794712,6.323205826234413,-0.25115703944847184,2.2664108903748414,1.305005818638867,1.3168861244377317,-2.021449212978624,7.791482287322966,2.9226636894898737,2.369239141800781,8.859684677419128,-0.8559104474057535,-0.9068128764780315,-5.839906015779728,-2.213664852851288,2.4087990460401407,4.563726154432549,-7.943357730135223,-1.8916320517713452,-2.12039157056907,-1.9954668454793596,-6.97755345644194,-8.38877440660749,2.496786247627482,-4.972662474064137,0.6142537436618822,2.1268305531939418,5.271667677340358,3.3710289214762654,7.619008905065352,-1.037135400397229,0.9987927669735369,0.29378791998053794,-0.7305601285429815,-4.625478145516451,-0.4883461368325006,-2.1668267019687075,9.335366781854317,4.4711522550786755,1.7377067287305106,-11.817656919087552,3.5291254120966693,-5.502247687001637,-1.0045527367326856,2.172940319711201,0.8098068953263238,-3.3521603570753147,4.048801572905966,0.06201212359295439,0.9752586678154576,-4.6122896926535715,-1.6735520837036384,4.192439863342865,-3.271335001361305,-2.7692346957158733,2.32477643666233,1.1893263276805957,-1.619618067794427,1.1285614262807564,0.038030627584684895,2.9918759712681724,-4.601611476863636,-8.31678468207322,-1.4612581651936403,2.69548969584045,-0.6773350285651935,-0.08243164478026052,5.3935331811127645,6.284774123593776,-2.363077553076065,-3.7149508841517545,-2.9802981986986885,-2.8154313630485817,-3.7755948258348635,-3.244854375281911,-4.638375611478886,0.48564421513807987,1.2328542849005957,2.4517989163364344,5.058030357588594,-3.4287739700824424,1.816112774430168,3.6538316845780314,-4.964707541027843,3.5432927511177508,-5.091251494928459,-1.9610971985982366,-1.2351747946533171,-6.250621637794402,2.7719434651621517,-0.7743766033822054,-0.7038471022446627,1.8791868944760002,-2.756452232051828,6.044307203094948,-0.9356049400474062,5.308733989130362,5.576792647955786,-4.966480190509599,2.665400234618735,1.800787021397762,-1.2828163673916628,-1.5606520077489825,1.2642027540738254,-0.5345635725739297,1.154457471947442,1.310184632182092,-2.5457542559873554,6.6268272975634215,-2.4335546552289404,-3.2290177203181334,1.2540512905499674,-7.829197447306354,1.2606488240804004,1.7594589630570827,2.4808733937298584,6.049966668484589,-0.05753541919110639,-3.6991074030169493,-1.621481511340499,1.9154792583591695,-2.588521987876386,0.9951200846331774,1.1240819240283852,-0.0794204389540658,2.6088727406564507,-6.631534516289677,-1.6815144405674207,-0.40031755534201463,4.754696383149066,2.725704863817597,3.376766514098572,-4.75005118696031,-0.9899307619535234,9.17598232450792,5.777357487106298,4.515964098992847,2.1071359536607446,2.1214502501860717,3.5851125756094286,2.681560545527581,5.223327059769284,6.0513954716314196,1.5303141936670943,0.41177740377321187,2.7834327286862393,-2.1064805237904363,4.8852431185847,5.515133245019959,4.406686344040274,0.6888322352633021,-2.7265145790546876,6.314202979623127,8.85685340766128,-4.224281746881284,-5.477085918192333,-4.034241644848843,-4.4986319030169595,3.409427235735711,-5.150215664242944,-3.070752914370304,-7.265867627187461,-2.088073439456384,-1.5441988575082481,1.7202311221765005,3.6030384774789925,-4.179897225463966,-2.3976811664288027,-1.7757417146138348,7.286882719098371,-3.50278534594967,-6.707002135546949,1.9225742276806865,-1.0356354131071035,6.352054143964639,5.292493989427018,5.655074374723163,3.837171434981735,5.5307301628114915,-4.171486342474096,3.0110970620499895,1.8821893589603644,-4.3569384424758,0.45538661948205095,-4.876430360156945,4.818827291663515,-3.8959051516215575,-8.673259123742262,10.058408737061935,8.213939980177088,7.256538121303437,-0.19917152934273138,1.2912001660098067,2.3153676171094832,-0.116884288441835,-1.1864943151528897,-1.0272243808434165,-3.1894488109136443,-2.576400119658856,4.140503806929104,-0.7914516244414496,0.36620506798320657,-5.064924177306563,-2.434684330496007,6.800396066021619,0.08261311441894596,0.1783575285887362,5.69844600466111,-1.6977867548369767,1.3970030582334896,0.4492525836505596,-10.448329260790775,-1.1614730112495548,-0.14204068560092784,1.409951061783216,-10.325033075427788,-7.687450798050361,-0.07909330604817234,1.483825837535823,3.63648135252386,-4.140505761053439,-0.7573500930079466,0.37005024600402,0.006786998671728392,-3.9217269243747457,-3.4825660846052804,6.358385788051761,-7.162532564373459,-1.8227236249292336,4.346755459329356,3.132696859398388,-3.349309058938365,3.237792055554289,-6.490703552738588,2.9647479163280424,-0.7586644217287326,-0.6476612560603319,-2.2930551552466243,-2.5110391291105514,-5.943673161771204,0.5293539977762252,0.5060281503478683,1.0508343696549887,3.1133112651713266,6.55781376534539,-1.3557500165371894,1.4125081849828753,3.8297897997293595,-2.8541708416181244,1.3020116312386127,0.6621133430112573,-1.17754023788622,-0.296342156007394,0.0585822046149881,9.499835240271272,-1.3700364763239123,0.31975214847006744,2.3790987762233753,-5.610467081030927,-3.615350601973382,-0.48660490925214583,2.790547626468708,0.2910184807996707,2.369982325114242,2.050273205818968,8.650133337934534,2.275844371625922,4.715025808749296,1.2102838128706994,-1.900572094915864,1.3676078973144419,-0.16102545543741822,-2.7797727873198497,-1.1972638299352594,-0.026561385969748278,4.2178214904419375,-2.2334447032116436,-1.9251273551595711,0.12441097099596361,-2.7447057892052764,-1.4890267806555528,-7.385410077991528,8.625742336965796,-0.8303718628431234,2.4627837481640475,-2.6290254894008296,1.5412275664770059,4.0979010385448555,1.7074263620777517,-1.2105309847196795,-3.192146740274752,-1.3829658473435704,3.4714450223617943,0.34716793892316067,-7.720629594602042,-2.470920351598413,-8.523055598127794,5.142721522795532,0.22650718064562894,1.2847460991743098,1.9963862357236684,-1.2936362257795255,3.2968288621347255,-1.4568497203545194,-4.699878294606693,0.008006421233976881,-4.494407383805032,1.2675143910706215,-3.94263267122975,0.057737890338885406,-8.632888652656563,5.95414805847718,2.1667786268397653,0.619664295114566,0.27945723044559573,3.837252586009416,5.206237960131161,-3.4513694044084,0.48750199107590436,-4.056276252523264,4.443597607357207,3.0248310831432157,4.025029689797819,-1.6663462236005926,2.314856479579349,-2.916236945852021,3.448296031926575,-4.094763248699113,-6.311533475903705,-3.131410326130084,-2.6683153213200086,-0.20590029770074741,9.344616567134944,4.2715084604267215,-1.6496503722638283,3.488726479529853,2.236780694573963,5.037357131844606,-0.33808401447277525,1.9878341143842004,-7.4558099730095275,2.039471615788148,7.199068953340398,-3.150789883241374,2.5268664192660237,0.6141002121986532,-3.5096338069840685,3.467429127249756,-2.362025707581679,7.892507169405464,-1.37429575641027,1.102424539654666,-1.2621127940958627,-0.7392546657896246,3.8201895124146974,-0.6602504918852674,6.675778407190939,2.2332254560890874,7.463813469675549,0.9326362636721703,-2.133921560721723,3.331833766954941,-4.82452407965426,-5.0432818898839145,-1.8578223721557132,0.3108727588612559,5.527495093994018,-4.748721440353979,0.05106633055700669,1.3978835213582352,0.1301793975854204,-3.524090977388269,0.7021138718744853,3.5863286679282687,3.1484836534403473,2.1424943776264764,-0.003854268094373574,-8.936472375551823,-0.9859657412037147,1.228177224247415,-2.128636916082055,0.19761378848150166,-3.1980281631735514,-1.2904400920145576,-3.289848680347129,-3.570508098613327,2.956883638084896,1.538690529566627,2.4430300310060717,4.139484131356931,-4.292859845054283,-5.839010508315345,0.08085600842409488,0.24427196556207748,9.364697307822903,1.00007892160543,-1.1079692894487636,-13.561354336783323,6.555889227653905,-1.5464640459838177,4.136731475635754,2.4127813205787403,0.5769268965016406,-4.028950624226244,1.0532700732261815,5.093937485680232,-1.2398150051391539,-4.529169097686878,1.6645749229480238,4.446100299017355,8.817408024522155,4.879246473245766,0.7290584718870762,6.948583248539729,0.14753905457787853,3.9944253333089157,0.10300242973739113,2.1975055024741703,0.17871995709426514,-0.8143482032193061,6.234171632401242,1.7875229883354058,-3.7757982370740253,3.7597043689007084,4.678661068750348,1.3562553344461106,2.202898370090648,3.3041988319700675,-2.1197498065457094,2.4540799647940235,-6.408145283554774,2.3867654464594223,-0.8904732114480362,-0.1365106911858846,0.04842516584774857,-1.1354705256908233,2.1257370552909864,1.4520009401536655,3.1738533757593346,4.676883431375186,-2.104147410409595,2.549191076301223,0.7265416171665602,8.161583555574962,0.5098267810093746,5.230326736287907,3.8889990300209747,-8.067452393377396,-0.2894064145085854,2.8469616276157717,-2.515518933486204,-4.843740562888715,4.011208002311485,3.389076321914423,1.2280436371793548,-0.3907112669774817,-2.973130021657898,-1.4481184132608012,-3.552101681462478,3.282005904717773,2.253817742421108,2.363956279231581,1.8745424882603308,6.761835206135463,-6.759928092973728,-2.7360593951115892,2.743072404389848,-3.2837662362816955,1.1863580592595577,0.06841935864703604,-2.9657929261638545,7.682290342884663,2.959730320097394,2.9774130725013594,1.3645417652902332,-4.422399663581117,0.4381237516821777,-2.217282665231622,9.721733655415422,-5.682966874140185,3.046573897241738,2.993246518524457,0.8988127419249049,3.9963526109653604,-2.1241061951611813,3.117213387071668,-3.1693027531584086,-0.25583349692316787,-5.305999163597916,-3.1676124060043307,-0.19803835532951572,0.8953703367850211,-3.384497070485241,-0.6553272420716013,2.524205687055298,4.087367757556796,5.025474755470131,3.3217745159504073,1.1645036027340514,2.8435935501250054,-1.5297742721849688,3.191256188630973,-0.19221142746058756,3.1532069957421953,-0.327393015449077,-3.0573713886107106,0.6719942646566691,-0.012141577078306622,-1.7321662213535192,2.5000938837277182,-3.1100092313862397,-13.095297564626224,-6.965578771061705,3.652761045158018,-0.9463183361507761,-1.9564058963910362,-1.9275507623334365,-1.994551174082856,6.1929957845129895,-7.545774135375035,1.1692331333145334,-0.4249932239606729,3.984206801247364,-1.3924816468276267,0.06884060125533153,-2.045587174350454,-6.754971069385403,-0.7636113701837693,2.038566278092396,2.398462102571043,-0.44308465924685086,-2.232639206928336,3.96586759308191,-10.963591778006213,10.819508789640203,-4.1840322216351495,4.70435213767256,2.693233021273583,-1.0708546233106433,-3.892867750861716,0.6801624788523464,3.4389487758838375,-11.170424067487449,-17.77327414678872,5.267049471089087,-3.849465998279827,-4.064125896126382,-4.274308076705954,-4.1364352979882275,0.3497615299146414,4.968779964636312,-2.753069242144869,-1.8322721070016568,-0.6498768492690583,-0.9253624539289043,1.866941421471391,-5.036442752631709,3.099269800094406,3.673978281396081,2.4743565289434786],"intercept":5.0}